<?xml version="1.0"?>
<opencv_storage>
<!-- Automatically converted from DataLARC, window size = 50x50 -->
<BallLARC type_id="opencv-haar-classifier">
  <size>
    50 50</size>
  <stages>
    <_>
      <!-- stage 0 -->
      <trees>
        <_>
          <!-- tree 0 -->
          <_>
            <!-- root node -->
            <feature>
              <rects>
                <_>
                  12 16 24 34 -1.</_>
                <_>
                  12 33 24 17 2.</_></rects>
              <tilted>0</tilted></feature>
            <threshold>-8.1182546913623810e-02</threshold>
            <left_val>5.6673949956893921e-01</left_val>
            <right_val>-8.8396668434143066e-01</right_val></_></_>
        <_>
          <!-- tree 1 -->
          <_>
            <!-- root node -->
            <feature>
              <rects>
                <_>
                  34 8 14 9 -1.</_>
                <_>
                  34 8 7 9 2.</_></rects>
              <tilted>0</tilted></feature>
            <threshold>1.5790920704603195e-02</threshold>
            <left_val>-5.2600002288818359e-01</left_val>
            <right_val>5.9817421436309814e-01</right_val></_></_>
        <_>
          <!-- tree 2 -->
          <_>
            <!-- root node -->
            <feature>
              <rects>
                <_>
                  7 7 4 7 -1.</_>
                <_>
                  9 7 2 7 2.</_></rects>
              <tilted>0</tilted></feature>
            <threshold>1.4455090276896954e-03</threshold>
            <left_val>-4.5272600650787354e-01</left_val>
            <right_val>8.2590270042419434e-01</right_val></_></_>
        <_>
          <!-- tree 3 -->
          <_>
            <!-- root node -->
            <feature>
              <rects>
                <_>
                  31 48 1 2 -1.</_>
                <_>
                  31 49 1 1 2.</_></rects>
              <tilted>0</tilted></feature>
            <threshold>5.3393828238768037e-06</threshold>
            <left_val>-5.3791832923889160e-01</left_val>
            <right_val>5.1747089624404907e-01</right_val></_></_>
        <_>
          <!-- tree 4 -->
          <_>
            <!-- root node -->
            <feature>
              <rects>
                <_>
                  1 19 12 5 -1.</_>
                <_>
                  5 19 4 5 3.</_></rects>
              <tilted>0</tilted></feature>
            <threshold>4.4876988977193832e-03</threshold>
            <left_val>-3.8633579015731812e-01</left_val>
            <right_val>8.3319187164306641e-01</right_val></_></_></trees>
      <stage_threshold>-1.3362410068511963e+00</stage_threshold>
      <parent>-1</parent>
      <next>-1</next></_>
    <_>
      <!-- stage 1 -->
      <trees>
        <_>
          <!-- tree 0 -->
          <_>
            <!-- root node -->
            <feature>
              <rects>
                <_>
                  4 0 10 14 -1.</_>
                <_>
                  4 0 5 7 2.</_>
                <_>
                  9 7 5 7 2.</_></rects>
              <tilted>0</tilted></feature>
            <threshold>6.4914361573755741e-03</threshold>
            <left_val>-5.2370071411132812e-01</left_val>
            <right_val>7.5568711757659912e-01</right_val></_></_>
        <_>
          <!-- tree 1 -->
          <_>
            <!-- root node -->
            <feature>
              <rects>
                <_>
                  26 48 1 2 -1.</_>
                <_>
                  26 49 1 1 2.</_></rects>
              <tilted>0</tilted></feature>
            <threshold>5.2455220611591358e-06</threshold>
            <left_val>-5.4907131195068359e-01</left_val>
            <right_val>5.4877012968063354e-01</right_val></_></_>
        <_>
          <!-- tree 2 -->
          <_>
            <!-- root node -->
            <feature>
              <rects>
                <_>
                  17 0 5 12 -1.</_>
                <_>
                  17 4 5 4 3.</_></rects>
              <tilted>0</tilted></feature>
            <threshold>5.6629450991749763e-03</threshold>
            <left_val>-3.6567619442939758e-01</left_val>
            <right_val>8.4465610980987549e-01</right_val></_></_>
        <_>
          <!-- tree 3 -->
          <_>
            <!-- root node -->
            <feature>
              <rects>
                <_>
                  33 48 1 2 -1.</_>
                <_>
                  33 49 1 1 2.</_></rects>
              <tilted>0</tilted></feature>
            <threshold>4.9151690291182604e-06</threshold>
            <left_val>-3.8280120491981506e-01</left_val>
            <right_val>3.4830299019813538e-01</right_val></_></_>
        <_>
          <!-- tree 4 -->
          <_>
            <!-- root node -->
            <feature>
              <rects>
                <_>
                  2 6 44 12 -1.</_>
                <_>
                  2 10 44 4 3.</_></rects>
              <tilted>0</tilted></feature>
            <threshold>2.0075790584087372e-02</threshold>
            <left_val>-3.9294990897178650e-01</left_val>
            <right_val>8.4492641687393188e-01</right_val></_></_></trees>
      <stage_threshold>-1.4830950498580933e+00</stage_threshold>
      <parent>0</parent>
      <next>-1</next></_>
    <_>
      <!-- stage 2 -->
      <trees>
        <_>
          <!-- tree 0 -->
          <_>
            <!-- root node -->
            <feature>
              <rects>
                <_>
                  0 47 12 3 -1.</_>
                <_>
                  6 47 6 3 2.</_></rects>
              <tilted>0</tilted></feature>
            <threshold>-3.1254839996108785e-06</threshold>
            <left_val>4.0416741371154785e-01</left_val>
            <right_val>-8.2556712627410889e-01</right_val></_></_>
        <_>
          <!-- tree 1 -->
          <_>
            <!-- root node -->
            <feature>
              <rects>
                <_>
                  42 0 8 5 -1.</_>
                <_>
                  42 0 4 5 2.</_></rects>
              <tilted>0</tilted></feature>
            <threshold>6.5683131106197834e-04</threshold>
            <left_val>1.7188329994678497e-01</left_val>
            <right_val>-9.2799711227416992e-01</right_val></_></_>
        <_>
          <!-- tree 2 -->
          <_>
            <!-- root node -->
            <feature>
              <rects>
                <_>
                  8 6 15 13 -1.</_>
                <_>
                  13 6 5 13 3.</_></rects>
              <tilted>0</tilted></feature>
            <threshold>1.5689589083194733e-02</threshold>
            <left_val>-4.5827850699424744e-01</left_val>
            <right_val>6.4795142412185669e-01</right_val></_></_>
        <_>
          <!-- tree 3 -->
          <_>
            <!-- root node -->
            <feature>
              <rects>
                <_>
                  32 2 15 1 -1.</_>
                <_>
                  37 2 5 1 3.</_></rects>
              <tilted>0</tilted></feature>
            <threshold>-3.1553700682707131e-04</threshold>
            <left_val>-7.6539438962936401e-01</left_val>
            <right_val>2.8599399328231812e-01</right_val></_></_>
        <_>
          <!-- tree 4 -->
          <_>
            <!-- root node -->
            <feature>
              <rects>
                <_>
                  2 0 9 6 -1.</_>
                <_>
                  5 0 3 6 3.</_></rects>
              <tilted>0</tilted></feature>
            <threshold>3.5652969381771982e-04</threshold>
            <left_val>2.6966840028762817e-01</left_val>
            <right_val>-9.3207651376724243e-01</right_val></_></_></trees>
      <stage_threshold>-5.5629992485046387e-01</stage_threshold>
      <parent>1</parent>
      <next>-1</next></_>
    <_>
      <!-- stage 3 -->
      <trees>
        <_>
          <!-- tree 0 -->
          <_>
            <!-- root node -->
            <feature>
              <rects>
                <_>
                  0 0 12 5 -1.</_>
                <_>
                  4 0 4 5 3.</_></rects>
              <tilted>0</tilted></feature>
            <threshold>-7.4167049024254084e-04</threshold>
            <left_val>-8.8772082328796387e-01</left_val>
            <right_val>3.5384258627891541e-01</right_val></_></_>
        <_>
          <!-- tree 1 -->
          <_>
            <!-- root node -->
            <feature>
              <rects>
                <_>
                  17 0 17 6 -1.</_>
                <_>
                  17 3 17 3 2.</_></rects>
              <tilted>0</tilted></feature>
            <threshold>6.8311751820147038e-03</threshold>
            <left_val>-4.8428660631179810e-01</left_val>
            <right_val>6.4274471998214722e-01</right_val></_></_>
        <_>
          <!-- tree 2 -->
          <_>
            <!-- root node -->
            <feature>
              <rects>
                <_>
                  3 39 2 9 -1.</_>
                <_>
                  4 39 1 9 2.</_></rects>
              <tilted>0</tilted></feature>
            <threshold>-2.3927450456540100e-06</threshold>
            <left_val>4.2273598909378052e-01</left_val>
            <right_val>-7.0838791131973267e-01</right_val></_></_>
        <_>
          <!-- tree 3 -->
          <_>
            <!-- root node -->
            <feature>
              <rects>
                <_>
                  36 0 10 1 -1.</_>
                <_>
                  36 0 5 1 2.</_></rects>
              <tilted>0</tilted></feature>
            <threshold>-1.6980209329631180e-04</threshold>
            <left_val>-8.6999899148941040e-01</left_val>
            <right_val>2.0057429373264313e-01</right_val></_></_>
        <_>
          <!-- tree 4 -->
          <_>
            <!-- root node -->
            <feature>
              <rects>
                <_>
                  10 46 7 4 -1.</_>
                <_>
                  10 48 7 2 2.</_></rects>
              <tilted>0</tilted></feature>
            <threshold>2.7682219752023229e-06</threshold>
            <left_val>-6.5891242027282715e-01</left_val>
            <right_val>3.5293039679527283e-01</right_val></_></_></trees>
      <stage_threshold>-1.2971700429916382e+00</stage_threshold>
      <parent>2</parent>
      <next>-1</next></_>
    <_>
      <!-- stage 4 -->
      <trees>
        <_>
          <!-- tree 0 -->
          <_>
            <!-- root node -->
            <feature>
              <rects>
                <_>
                  19 1 9 6 -1.</_>
                <_>
                  19 3 9 2 3.</_></rects>
              <tilted>0</tilted></feature>
            <threshold>4.1124201379716396e-03</threshold>
            <left_val>-3.2837548851966858e-01</left_val>
            <right_val>8.3057188987731934e-01</right_val></_></_>
        <_>
          <!-- tree 1 -->
          <_>
            <!-- root node -->
            <feature>
              <rects>
                <_>
                  15 0 33 1 -1.</_>
                <_>
                  26 0 11 1 3.</_></rects>
              <tilted>0</tilted></feature>
            <threshold>6.4393487991765141e-04</threshold>
            <left_val>2.8312209248542786e-01</left_val>
            <right_val>-8.6105167865753174e-01</right_val></_></_>
        <_>
          <!-- tree 2 -->
          <_>
            <!-- root node -->
            <feature>
              <rects>
                <_>
                  11 1 4 14 -1.</_>
                <_>
                  11 8 4 7 2.</_></rects>
              <tilted>0</tilted></feature>
            <threshold>4.5320671051740646e-03</threshold>
            <left_val>-5.9777557849884033e-01</left_val>
            <right_val>4.5722371339797974e-01</right_val></_></_>
        <_>
          <!-- tree 3 -->
          <_>
            <!-- root node -->
            <feature>
              <rects>
                <_>
                  2 1 48 1 -1.</_>
                <_>
                  18 1 16 1 3.</_></rects>
              <tilted>0</tilted></feature>
            <threshold>-1.4513459755107760e-03</threshold>
            <left_val>-8.5026878118515015e-01</left_val>
            <right_val>2.8624990582466125e-01</right_val></_></_>
        <_>
          <!-- tree 4 -->
          <_>
            <!-- root node -->
            <feature>
              <rects>
                <_>
                  1 12 40 38 -1.</_>
                <_>
                  1 31 40 19 2.</_></rects>
              <tilted>0</tilted></feature>
            <threshold>-1.2236829847097397e-01</threshold>
            <left_val>2.1953859925270081e-01</left_val>
            <right_val>-8.4540039300918579e-01</right_val></_></_>
        <_>
          <!-- tree 5 -->
          <_>
            <!-- root node -->
            <feature>
              <rects>
                <_>
                  27 48 1 2 -1.</_>
                <_>
                  27 49 1 1 2.</_></rects>
              <tilted>0</tilted></feature>
            <threshold>5.6139670050470158e-06</threshold>
            <left_val>-5.4772490262985229e-01</left_val>
            <right_val>2.9714819788932800e-01</right_val></_></_></trees>
      <stage_threshold>-9.7661101818084717e-01</stage_threshold>
      <parent>3</parent>
      <next>-1</next></_>
    <_>
      <!-- stage 5 -->
      <trees>
        <_>
          <!-- tree 0 -->
          <_>
            <!-- root node -->
            <feature>
              <rects>
                <_>
                  11 3 2 11 -1.</_>
                <_>
                  12 3 1 11 2.</_></rects>
              <tilted>0</tilted></feature>
            <threshold>2.5277648819610476e-04</threshold>
            <left_val>-6.0955709218978882e-01</left_val>
            <right_val>5.8175247907638550e-01</right_val></_></_>
        <_>
          <!-- tree 1 -->
          <_>
            <!-- root node -->
            <feature>
              <rects>
                <_>
                  49 0 1 30 -1.</_>
                <_>
                  49 15 1 15 2.</_></rects>
              <tilted>0</tilted></feature>
            <threshold>9.7765983082354069e-04</threshold>
            <left_val>2.0201629400253296e-01</left_val>
            <right_val>-7.2667467594146729e-01</right_val></_></_>
        <_>
          <!-- tree 2 -->
          <_>
            <!-- root node -->
            <feature>
              <rects>
                <_>
                  0 10 1 40 -1.</_>
                <_>
                  0 30 1 20 2.</_></rects>
              <tilted>0</tilted></feature>
            <threshold>-6.2650018371641636e-03</threshold>
            <left_val>-8.9935767650604248e-01</left_val>
            <right_val>3.0874818563461304e-01</right_val></_></_>
        <_>
          <!-- tree 3 -->
          <_>
            <!-- root node -->
            <feature>
              <rects>
                <_>
                  40 33 8 3 -1.</_>
                <_>
                  40 33 4 3 2.</_></rects>
              <tilted>0</tilted></feature>
            <threshold>1.8706029513850808e-03</threshold>
            <left_val>-2.9483279585838318e-01</left_val>
            <right_val>4.5881789922714233e-01</right_val></_></_>
        <_>
          <!-- tree 4 -->
          <_>
            <!-- root node -->
            <feature>
              <rects>
                <_>
                  0 0 24 1 -1.</_>
                <_>
                  12 0 12 1 2.</_></rects>
              <tilted>0</tilted></feature>
            <threshold>8.1097707152366638e-04</threshold>
            <left_val>2.9691019654273987e-01</left_val>
            <right_val>-8.4576112031936646e-01</right_val></_></_>
        <_>
          <!-- tree 5 -->
          <_>
            <!-- root node -->
            <feature>
              <rects>
                <_>
                  28 48 1 2 -1.</_>
                <_>
                  28 49 1 1 2.</_></rects>
              <tilted>0</tilted></feature>
            <threshold>2.6594580049277283e-06</threshold>
            <left_val>-4.8649328947067261e-01</left_val>
            <right_val>1.9803449511528015e-01</right_val></_></_>
        <_>
          <!-- tree 6 -->
          <_>
            <!-- root node -->
            <feature>
              <rects>
                <_>
                  3 34 12 1 -1.</_>
                <_>
                  7 34 4 1 3.</_></rects>
              <tilted>0</tilted></feature>
            <threshold>8.1316189607605338e-04</threshold>
            <left_val>-3.6165890097618103e-01</left_val>
            <right_val>7.1671032905578613e-01</right_val></_></_></trees>
      <stage_threshold>-1.1890310049057007e+00</stage_threshold>
      <parent>4</parent>
      <next>-1</next></_>
    <_>
      <!-- stage 6 -->
      <trees>
        <_>
          <!-- tree 0 -->
          <_>
            <!-- root node -->
            <feature>
              <rects>
                <_>
                  0 0 1 44 -1.</_>
                <_>
                  0 22 1 22 2.</_></rects>
              <tilted>0</tilted></feature>
            <threshold>1.4188369968906045e-03</threshold>
            <left_val>3.4575450420379639e-01</left_val>
            <right_val>-8.6886322498321533e-01</right_val></_></_>
        <_>
          <!-- tree 1 -->
          <_>
            <!-- root node -->
            <feature>
              <rects>
                <_>
                  34 8 14 9 -1.</_>
                <_>
                  34 8 7 9 2.</_></rects>
              <tilted>0</tilted></feature>
            <threshold>1.0999489575624466e-02</threshold>
            <left_val>-6.1810398101806641e-01</left_val>
            <right_val>5.2509087324142456e-01</right_val></_></_>
        <_>
          <!-- tree 2 -->
          <_>
            <!-- root node -->
            <feature>
              <rects>
                <_>
                  4 12 12 1 -1.</_>
                <_>
                  8 12 4 1 3.</_></rects>
              <tilted>0</tilted></feature>
            <threshold>8.3097640890628099e-04</threshold>
            <left_val>-4.0380901098251343e-01</left_val>
            <right_val>6.8236607313156128e-01</right_val></_></_>
        <_>
          <!-- tree 3 -->
          <_>
            <!-- root node -->
            <feature>
              <rects>
                <_>
                  46 0 4 11 -1.</_>
                <_>
                  46 0 2 11 2.</_></rects>
              <tilted>0</tilted></feature>
            <threshold>-5.0321267917752266e-04</threshold>
            <left_val>-9.8521292209625244e-01</left_val>
            <right_val>1.8632179498672485e-01</right_val></_></_></trees>
      <stage_threshold>-6.1827951669692993e-01</stage_threshold>
      <parent>5</parent>
      <next>-1</next></_>
    <_>
      <!-- stage 7 -->
      <trees>
        <_>
          <!-- tree 0 -->
          <_>
            <!-- root node -->
            <feature>
              <rects>
                <_>
                  1 0 16 10 -1.</_>
                <_>
                  9 0 8 10 2.</_></rects>
              <tilted>0</tilted></feature>
            <threshold>1.0652829660102725e-03</threshold>
            <left_val>-7.2700631618499756e-01</left_val>
            <right_val>3.6953040957450867e-01</right_val></_></_>
        <_>
          <!-- tree 1 -->
          <_>
            <!-- root node -->
            <feature>
              <rects>
                <_>
                  44 1 6 4 -1.</_>
                <_>
                  44 1 3 4 2.</_></rects>
              <tilted>0</tilted></feature>
            <threshold>2.6914221234619617e-04</threshold>
            <left_val>1.3237559795379639e-01</left_val>
            <right_val>-8.6460989713668823e-01</right_val></_></_>
        <_>
          <!-- tree 2 -->
          <_>
            <!-- root node -->
            <feature>
              <rects>
                <_>
                  9 49 10 1 -1.</_>
                <_>
                  14 49 5 1 2.</_></rects>
              <tilted>0</tilted></feature>
            <threshold>-2.2028079911251552e-06</threshold>
            <left_val>3.3005228638648987e-01</left_val>
            <right_val>-6.5582758188247681e-01</right_val></_></_>
        <_>
          <!-- tree 3 -->
          <_>
            <!-- root node -->
            <feature>
              <rects>
                <_>
                  16 0 24 1 -1.</_>
                <_>
                  24 0 8 1 3.</_></rects>
              <tilted>0</tilted></feature>
            <threshold>-7.4450811371207237e-04</threshold>
            <left_val>-8.6281037330627441e-01</left_val>
            <right_val>1.9871209561824799e-01</right_val></_></_>
        <_>
          <!-- tree 4 -->
          <_>
            <!-- root node -->
            <feature>
              <rects>
                <_>
                  19 4 12 20 -1.</_>
                <_>
                  23 4 4 20 3.</_></rects>
              <tilted>0</tilted></feature>
            <threshold>-1.2760969810187817e-02</threshold>
            <left_val>6.5451812744140625e-01</left_val>
            <right_val>-3.6483821272850037e-01</right_val></_></_>
        <_>
          <!-- tree 5 -->
          <_>
            <!-- root node -->
            <feature>
              <rects>
                <_>
                  15 15 21 21 -1.</_>
                <_>
                  22 15 7 21 3.</_></rects>
              <tilted>0</tilted></feature>
            <threshold>5.4211050271987915e-02</threshold>
            <left_val>-2.4252930283546448e-01</left_val>
            <right_val>8.3003628253936768e-01</right_val></_></_>
        <_>
          <!-- tree 6 -->
          <_>
            <!-- root node -->
            <feature>
              <rects>
                <_>
                  12 0 24 1 -1.</_>
                <_>
                  20 0 8 1 3.</_></rects>
              <tilted>0</tilted></feature>
            <threshold>4.0404679020866752e-04</threshold>
            <left_val>2.8884410858154297e-01</left_val>
            <right_val>-8.5303157567977905e-01</right_val></_></_></trees>
      <stage_threshold>-1.3478989601135254e+00</stage_threshold>
      <parent>6</parent>
      <next>-1</next></_>
    <_>
      <!-- stage 8 -->
      <trees>
        <_>
          <!-- tree 0 -->
          <_>
            <!-- root node -->
            <feature>
              <rects>
                <_>
                  13 1 4 8 -1.</_>
                <_>
                  13 5 4 4 2.</_></rects>
              <tilted>0</tilted></feature>
            <threshold>2.6853838935494423e-03</threshold>
            <left_val>-5.2516168355941772e-01</left_val>
            <right_val>5.6137311458587646e-01</right_val></_></_>
        <_>
          <!-- tree 1 -->
          <_>
            <!-- root node -->
            <feature>
              <rects>
                <_>
                  40 31 8 5 -1.</_>
                <_>
                  40 31 4 5 2.</_></rects>
              <tilted>0</tilted></feature>
            <threshold>2.4462901055812836e-03</threshold>
            <left_val>-2.3173940181732178e-01</left_val>
            <right_val>4.5008379220962524e-01</right_val></_></_>
        <_>
          <!-- tree 2 -->
          <_>
            <!-- root node -->
            <feature>
              <rects>
                <_>
                  12 48 6 2 -1.</_>
                <_>
                  12 49 6 1 2.</_></rects>
              <tilted>0</tilted></feature>
            <threshold>2.8951781132491305e-06</threshold>
            <left_val>-6.3738572597503662e-01</left_val>
            <right_val>3.2137730717658997e-01</right_val></_></_>
        <_>
          <!-- tree 3 -->
          <_>
            <!-- root node -->
            <feature>
              <rects>
                <_>
                  10 0 36 1 -1.</_>
                <_>
                  22 0 12 1 3.</_></rects>
              <tilted>0</tilted></feature>
            <threshold>-6.7463278537616134e-04</threshold>
            <left_val>-7.4299401044845581e-01</left_val>
            <right_val>1.5033100545406342e-01</right_val></_></_>
        <_>
          <!-- tree 4 -->
          <_>
            <!-- root node -->
            <feature>
              <rects>
                <_>
                  3 13 18 2 -1.</_>
                <_>
                  9 13 6 2 3.</_></rects>
              <tilted>0</tilted></feature>
            <threshold>2.7180030010640621e-03</threshold>
            <left_val>-4.8466899991035461e-01</left_val>
            <right_val>4.9156379699707031e-01</right_val></_></_>
        <_>
          <!-- tree 5 -->
          <_>
            <!-- root node -->
            <feature>
              <rects>
                <_>
                  26 13 15 19 -1.</_>
                <_>
                  31 13 5 19 3.</_></rects>
              <tilted>0</tilted></feature>
            <threshold>1.2864709831774235e-02</threshold>
            <left_val>-2.6132479310035706e-01</left_val>
            <right_val>5.2792787551879883e-01</right_val></_></_>
        <_>
          <!-- tree 6 -->
          <_>
            <!-- root node -->
            <feature>
              <rects>
                <_>
                  19 34 1 4 -1.</_>
                <_>
                  19 36 1 2 2.</_></rects>
              <tilted>0</tilted></feature>
            <threshold>-1.1542249922058545e-05</threshold>
            <left_val>3.4053859114646912e-01</left_val>
            <right_val>-7.1323579549789429e-01</right_val></_></_></trees>
      <stage_threshold>-1.0451300144195557e+00</stage_threshold>
      <parent>7</parent>
      <next>-1</next></_>
    <_>
      <!-- stage 9 -->
      <trees>
        <_>
          <!-- tree 0 -->
          <_>
            <!-- root node -->
            <feature>
              <rects>
                <_>
                  14 42 19 4 -1.</_>
                <_>
                  14 44 19 2 2.</_></rects>
              <tilted>0</tilted></feature>
            <threshold>-2.4978900328278542e-03</threshold>
            <left_val>5.9186422824859619e-01</left_val>
            <right_val>-4.3985968828201294e-01</right_val></_></_>
        <_>
          <!-- tree 1 -->
          <_>
            <!-- root node -->
            <feature>
              <rects>
                <_>
                  34 0 15 9 -1.</_>
                <_>
                  39 0 5 9 3.</_></rects>
              <tilted>0</tilted></feature>
            <threshold>-3.0309808789752424e-04</threshold>
            <left_val>3.7712898850440979e-01</left_val>
            <right_val>-5.4863750934600830e-01</right_val></_></_>
        <_>
          <!-- tree 2 -->
          <_>
            <!-- root node -->
            <feature>
              <rects>
                <_>
                  0 5 8 1 -1.</_>
                <_>
                  4 5 4 1 2.</_></rects>
              <tilted>0</tilted></feature>
            <threshold>1.3578109792433679e-04</threshold>
            <left_val>2.0831249654293060e-01</left_val>
            <right_val>-9.5345628261566162e-01</right_val></_></_>
        <_>
          <!-- tree 3 -->
          <_>
            <!-- root node -->
            <feature>
              <rects>
                <_>
                  30 18 20 1 -1.</_>
                <_>
                  30 18 10 1 2.</_></rects>
              <tilted>0</tilted></feature>
            <threshold>2.3513350170105696e-03</threshold>
            <left_val>-3.9469179511070251e-01</left_val>
            <right_val>4.0415871143341064e-01</right_val></_></_>
        <_>
          <!-- tree 4 -->
          <_>
            <!-- root node -->
            <feature>
              <rects>
                <_>
                  2 28 9 5 -1.</_>
                <_>
                  5 28 3 5 3.</_></rects>
              <tilted>0</tilted></feature>
            <threshold>3.6835749051533639e-04</threshold>
            <left_val>-4.3387511372566223e-01</left_val>
            <right_val>4.6121591329574585e-01</right_val></_></_>
        <_>
          <!-- tree 5 -->
          <_>
            <!-- root node -->
            <feature>
              <rects>
                <_>
                  15 0 27 1 -1.</_>
                <_>
                  24 0 9 1 3.</_></rects>
              <tilted>0</tilted></feature>
            <threshold>4.2197099537588656e-04</threshold>
            <left_val>1.7015039920806885e-01</left_val>
            <right_val>-8.4613937139511108e-01</right_val></_></_>
        <_>
          <!-- tree 6 -->
          <_>
            <!-- root node -->
            <feature>
              <rects>
                <_>
                  0 41 4 6 -1.</_>
                <_>
                  2 41 2 6 2.</_></rects>
              <tilted>0</tilted></feature>
            <threshold>1.2415500350471120e-05</threshold>
            <left_val>2.2316560149192810e-01</left_val>
            <right_val>-8.2709658145904541e-01</right_val></_></_></trees>
      <stage_threshold>-1.2154359817504883e+00</stage_threshold>
      <parent>8</parent>
      <next>-1</next></_>
    <_>
      <!-- stage 10 -->
      <trees>
        <_>
          <!-- tree 0 -->
          <_>
            <!-- root node -->
            <feature>
              <rects>
                <_>
                  9 4 15 22 -1.</_>
                <_>
                  14 4 5 22 3.</_></rects>
              <tilted>0</tilted></feature>
            <threshold>3.2345630228519440e-02</threshold>
            <left_val>-3.2243999838829041e-01</left_val>
            <right_val>6.6359812021255493e-01</right_val></_></_>
        <_>
          <!-- tree 1 -->
          <_>
            <!-- root node -->
            <feature>
              <rects>
                <_>
                  47 0 3 10 -1.</_>
                <_>
                  47 5 3 5 2.</_></rects>
              <tilted>0</tilted></feature>
            <threshold>6.9288501981645823e-04</threshold>
            <left_val>2.0380020141601562e-01</left_val>
            <right_val>-8.2306081056594849e-01</right_val></_></_>
        <_>
          <!-- tree 2 -->
          <_>
            <!-- root node -->
            <feature>
              <rects>
                <_>
                  11 8 12 24 -1.</_>
                <_>
                  15 8 4 24 3.</_></rects>
              <tilted>0</tilted></feature>
            <threshold>-1.4909050427377224e-02</threshold>
            <left_val>7.2734677791595459e-01</left_val>
            <right_val>-2.8973481059074402e-01</right_val></_></_>
        <_>
          <!-- tree 3 -->
          <_>
            <!-- root node -->
            <feature>
              <rects>
                <_>
                  49 6 1 6 -1.</_>
                <_>
                  49 9 1 3 2.</_></rects>
              <tilted>0</tilted></feature>
            <threshold>-1.6380779561586678e-04</threshold>
            <left_val>-7.0976299047470093e-01</left_val>
            <right_val>2.2029550373554230e-01</right_val></_></_>
        <_>
          <!-- tree 4 -->
          <_>
            <!-- root node -->
            <feature>
              <rects>
                <_>
                  13 2 23 6 -1.</_>
                <_>
                  13 4 23 2 3.</_></rects>
              <tilted>0</tilted></feature>
            <threshold>7.5186449103057384e-03</threshold>
            <left_val>-3.2535979151725769e-01</left_val>
            <right_val>7.1287888288497925e-01</right_val></_></_>
        <_>
          <!-- tree 5 -->
          <_>
            <!-- root node -->
            <feature>
              <rects>
                <_>
                  44 2 6 8 -1.</_>
                <_>
                  46 2 2 8 3.</_></rects>
              <tilted>0</tilted></feature>
            <threshold>4.6662049135193229e-04</threshold>
            <left_val>1.3269810378551483e-01</left_val>
            <right_val>-9.7665971517562866e-01</right_val></_></_>
        <_>
          <!-- tree 6 -->
          <_>
            <!-- root node -->
            <feature>
              <rects>
                <_>
                  9 34 3 10 -1.</_>
                <_>
                  9 39 3 5 2.</_></rects>
              <tilted>0</tilted></feature>
            <threshold>-2.6874770410358906e-03</threshold>
            <left_val>4.3428468704223633e-01</left_val>
            <right_val>-4.5138069987297058e-01</right_val></_></_>
        <_>
          <!-- tree 7 -->
          <_>
            <!-- root node -->
            <feature>
              <rects>
                <_>
                  36 23 9 16 -1.</_>
                <_>
                  39 23 3 16 3.</_></rects>
              <tilted>0</tilted></feature>
            <threshold>-7.2166868485510349e-03</threshold>
            <left_val>5.8171421289443970e-01</left_val>
            <right_val>-1.7338070273399353e-01</right_val></_></_>
        <_>
          <!-- tree 8 -->
          <_>
            <!-- root node -->
            <feature>
              <rects>
                <_>
                  0 2 6 8 -1.</_>
                <_>
                  2 2 2 8 3.</_></rects>
              <tilted>0</tilted></feature>
            <threshold>2.9024638934060931e-04</threshold>
            <left_val>2.1409219503402710e-01</left_val>
            <right_val>-9.5695269107818604e-01</right_val></_></_></trees>
      <stage_threshold>-1.0631760358810425e+00</stage_threshold>
      <parent>9</parent>
      <next>-1</next></_>
    <_>
      <!-- stage 11 -->
      <trees>
        <_>
          <!-- tree 0 -->
          <_>
            <!-- root node -->
            <feature>
              <rects>
                <_>
                  21 0 4 9 -1.</_>
                <_>
                  21 3 4 3 3.</_></rects>
              <tilted>0</tilted></feature>
            <threshold>2.7238149195909500e-03</threshold>
            <left_val>-3.8513079285621643e-01</left_val>
            <right_val>5.7929247617721558e-01</right_val></_></_>
        <_>
          <!-- tree 1 -->
          <_>
            <!-- root node -->
            <feature>
              <rects>
                <_>
                  46 1 4 11 -1.</_>
                <_>
                  46 1 2 11 2.</_></rects>
              <tilted>0</tilted></feature>
            <threshold>3.2452360028401017e-04</threshold>
            <left_val>1.5771600604057312e-01</left_val>
            <right_val>-8.8027369976043701e-01</right_val></_></_>
        <_>
          <!-- tree 2 -->
          <_>
            <!-- root node -->
            <feature>
              <rects>
                <_>
                  10 3 5 10 -1.</_>
                <_>
                  10 8 5 5 2.</_></rects>
              <tilted>0</tilted></feature>
            <threshold>1.5837909886613488e-03</threshold>
            <left_val>-5.9668010473251343e-01</left_val>
            <right_val>3.1537979841232300e-01</right_val></_></_>
        <_>
          <!-- tree 3 -->
          <_>
            <!-- root node -->
            <feature>
              <rects>
                <_>
                  46 8 3 4 -1.</_>
                <_>
                  46 10 3 2 2.</_></rects>
              <tilted>0</tilted></feature>
            <threshold>1.7540769476909190e-04</threshold>
            <left_val>6.9377593696117401e-02</left_val>
            <right_val>-8.1232887506484985e-01</right_val></_></_>
        <_>
          <!-- tree 4 -->
          <_>
            <!-- root node -->
            <feature>
              <rects>
                <_>
                  1 3 2 14 -1.</_>
                <_>
                  1 10 2 7 2.</_></rects>
              <tilted>0</tilted></feature>
            <threshold>8.7358639575541019e-04</threshold>
            <left_val>2.4836869537830353e-01</left_val>
            <right_val>-7.8877848386764526e-01</right_val></_></_>
        <_>
          <!-- tree 5 -->
          <_>
            <!-- root node -->
            <feature>
              <rects>
                <_>
                  36 37 8 10 -1.</_>
                <_>
                  40 37 4 5 2.</_>
                <_>
                  36 42 4 5 2.</_></rects>
              <tilted>0</tilted></feature>
            <threshold>-2.9815519228577614e-03</threshold>
            <left_val>2.9807680845260620e-01</left_val>
            <right_val>-2.5779160857200623e-01</right_val></_></_>
        <_>
          <!-- tree 6 -->
          <_>
            <!-- root node -->
            <feature>
              <rects>
                <_>
                  18 7 14 16 -1.</_>
                <_>
                  18 7 7 8 2.</_>
                <_>
                  25 15 7 8 2.</_></rects>
              <tilted>0</tilted></feature>
            <threshold>-9.6818068996071815e-03</threshold>
            <left_val>6.3491660356521606e-01</left_val>
            <right_val>-2.8068301081657410e-01</right_val></_></_>
        <_>
          <!-- tree 7 -->
          <_>
            <!-- root node -->
            <feature>
              <rects>
                <_>
                  49 0 1 36 -1.</_>
                <_>
                  49 12 1 12 3.</_></rects>
              <tilted>0</tilted></feature>
            <threshold>-2.3663579486310482e-03</threshold>
            <left_val>-6.7500180006027222e-01</left_val>
            <right_val>1.5311099588871002e-01</right_val></_></_>
        <_>
          <!-- tree 8 -->
          <_>
            <!-- root node -->
            <feature>
              <rects>
                <_>
                  14 3 2 9 -1.</_>
                <_>
                  15 3 1 9 2.</_></rects>
              <tilted>0</tilted></feature>
            <threshold>1.4885560085531324e-04</threshold>
            <left_val>-5.0819641351699829e-01</left_val>
            <right_val>3.8915339112281799e-01</right_val></_></_>
        <_>
          <!-- tree 9 -->
          <_>
            <!-- root node -->
            <feature>
              <rects>
                <_>
                  43 46 7 4 -1.</_>
                <_>
                  43 48 7 2 2.</_></rects>
              <tilted>0</tilted></feature>
            <threshold>-1.7707279766909778e-04</threshold>
            <left_val>-6.2416827678680420e-01</left_val>
            <right_val>2.2467359900474548e-01</right_val></_></_>
        <_>
          <!-- tree 10 -->
          <_>
            <!-- root node -->
            <feature>
              <rects>
                <_>
                  1 22 36 26 -1.</_>
                <_>
                  1 35 36 13 2.</_></rects>
              <tilted>0</tilted></feature>
            <threshold>-2.1057050675153732e-02</threshold>
            <left_val>1.6311070322990417e-01</left_val>
            <right_val>-9.5982968807220459e-01</right_val></_></_></trees>
      <stage_threshold>-1.3050980567932129e+00</stage_threshold>
      <parent>10</parent>
      <next>-1</next></_>
    <_>
      <!-- stage 12 -->
      <trees>
        <_>
          <!-- tree 0 -->
          <_>
            <!-- root node -->
            <feature>
              <rects>
                <_>
                  16 4 15 12 -1.</_>
                <_>
                  16 8 15 4 3.</_></rects>
              <tilted>0</tilted></feature>
            <threshold>-1.6635220497846603e-02</threshold>
            <left_val>7.0885771512985229e-01</left_val>
            <right_val>-3.2748419046401978e-01</right_val></_></_>
        <_>
          <!-- tree 1 -->
          <_>
            <!-- root node -->
            <feature>
              <rects>
                <_>
                  22 39 6 9 -1.</_>
                <_>
                  22 42 6 3 3.</_></rects>
              <tilted>0</tilted></feature>
            <threshold>3.4027090296149254e-03</threshold>
            <left_val>-2.3807050287723541e-01</left_val>
            <right_val>6.6098058223724365e-01</right_val></_></_>
        <_>
          <!-- tree 2 -->
          <_>
            <!-- root node -->
            <feature>
              <rects>
                <_>
                  0 0 1 36 -1.</_>
                <_>
                  0 12 1 12 3.</_></rects>
              <tilted>0</tilted></feature>
            <threshold>-2.2647760342806578e-03</threshold>
            <left_val>-8.4250897169113159e-01</left_val>
            <right_val>2.2932499647140503e-01</right_val></_></_>
        <_>
          <!-- tree 3 -->
          <_>
            <!-- root node -->
            <feature>
              <rects>
                <_>
                  17 3 16 3 -1.</_>
                <_>
                  17 4 16 1 3.</_></rects>
              <tilted>0</tilted></feature>
            <threshold>-8.5590907838195562e-04</threshold>
            <left_val>7.0707702636718750e-01</left_val>
            <right_val>-2.9379189014434814e-01</right_val></_></_>
        <_>
          <!-- tree 4 -->
          <_>
            <!-- root node -->
            <feature>
              <rects>
                <_>
                  8 44 4 2 -1.</_>
                <_>
                  10 44 2 2 2.</_></rects>
              <tilted>0</tilted></feature>
            <threshold>-2.7156399937666720e-06</threshold>
            <left_val>3.4208410978317261e-01</left_val>
            <right_val>-5.3163522481918335e-01</right_val></_></_>
        <_>
          <!-- tree 5 -->
          <_>
            <!-- root node -->
            <feature>
              <rects>
                <_>
                  15 4 24 17 -1.</_>
                <_>
                  23 4 8 17 3.</_></rects>
              <tilted>0</tilted></feature>
            <threshold>-5.3363159298896790e-02</threshold>
            <left_val>6.6237968206405640e-01</left_val>
            <right_val>-1.8800529837608337e-01</right_val></_></_>
        <_>
          <!-- tree 6 -->
          <_>
            <!-- root node -->
            <feature>
              <rects>
                <_>
                  18 4 14 12 -1.</_>
                <_>
                  25 4 7 12 2.</_></rects>
              <tilted>0</tilted></feature>
            <threshold>1.3049939647316933e-02</threshold>
            <left_val>-2.7429249882698059e-01</left_val>
            <right_val>7.0494967699050903e-01</right_val></_></_>
        <_>
          <!-- tree 7 -->
          <_>
            <!-- root node -->
            <feature>
              <rects>
                <_>
                  15 0 24 1 -1.</_>
                <_>
                  23 0 8 1 3.</_></rects>
              <tilted>0</tilted></feature>
            <threshold>-8.7008171249181032e-04</threshold>
            <left_val>-7.4799299240112305e-01</left_val>
            <right_val>1.6082899272441864e-01</right_val></_></_>
        <_>
          <!-- tree 8 -->
          <_>
            <!-- root node -->
            <feature>
              <rects>
                <_>
                  10 10 18 22 -1.</_>
                <_>
                  16 10 6 22 3.</_></rects>
              <tilted>0</tilted></feature>
            <threshold>3.3795300871133804e-02</threshold>
            <left_val>-3.1230649352073669e-01</left_val>
            <right_val>5.8939272165298462e-01</right_val></_></_>
        <_>
          <!-- tree 9 -->
          <_>
            <!-- root node -->
            <feature>
              <rects>
                <_>
                  29 18 21 2 -1.</_>
                <_>
                  36 18 7 2 3.</_></rects>
              <tilted>0</tilted></feature>
            <threshold>2.4241639766842127e-03</threshold>
            <left_val>-2.3757550120353699e-01</left_val>
            <right_val>3.6383160948753357e-01</right_val></_></_></trees>
      <stage_threshold>-1.1392879486083984e+00</stage_threshold>
      <parent>11</parent>
      <next>-1</next></_>
    <_>
      <!-- stage 13 -->
      <trees>
        <_>
          <!-- tree 0 -->
          <_>
            <!-- root node -->
            <feature>
              <rects>
                <_>
                  11 3 2 7 -1.</_>
                <_>
                  12 3 1 7 2.</_></rects>
              <tilted>0</tilted></feature>
            <threshold>2.7965800836682320e-04</threshold>
            <left_val>-4.8515129089355469e-01</left_val>
            <right_val>4.9494731426239014e-01</right_val></_></_>
        <_>
          <!-- tree 1 -->
          <_>
            <!-- root node -->
            <feature>
              <rects>
                <_>
                  39 35 6 2 -1.</_>
                <_>
                  39 35 3 2 2.</_></rects>
              <tilted>0</tilted></feature>
            <threshold>4.0419929428026080e-04</threshold>
            <left_val>-2.0214770734310150e-01</left_val>
            <right_val>2.8274598717689514e-01</right_val></_></_>
        <_>
          <!-- tree 2 -->
          <_>
            <!-- root node -->
            <feature>
              <rects>
                <_>
                  1 48 7 2 -1.</_>
                <_>
                  1 49 7 1 2.</_></rects>
              <tilted>0</tilted></feature>
            <threshold>-9.2590242275036871e-05</threshold>
            <left_val>-8.8781011104583740e-01</left_val>
            <right_val>2.1715229749679565e-01</right_val></_></_>
        <_>
          <!-- tree 3 -->
          <_>
            <!-- root node -->
            <feature>
              <rects>
                <_>
                  41 32 6 1 -1.</_>
                <_>
                  41 32 3 1 2.</_></rects>
              <tilted>0</tilted></feature>
            <threshold>1.3404259516391903e-04</threshold>
            <left_val>-1.6877059638500214e-01</left_val>
            <right_val>1.4156420528888702e-01</right_val></_></_>
        <_>
          <!-- tree 4 -->
          <_>
            <!-- root node -->
            <feature>
              <rects>
                <_>
                  1 7 1 10 -1.</_>
                <_>
                  1 12 1 5 2.</_></rects>
              <tilted>0</tilted></feature>
            <threshold>1.7015970661304891e-04</threshold>
            <left_val>2.0831969380378723e-01</left_val>
            <right_val>-7.9434472322463989e-01</right_val></_></_>
        <_>
          <!-- tree 5 -->
          <_>
            <!-- root node -->
            <feature>
              <rects>
                <_>
                  21 34 15 11 -1.</_>
                <_>
                  26 34 5 11 3.</_></rects>
              <tilted>0</tilted></feature>
            <threshold>-1.1357090435922146e-02</threshold>
            <left_val>4.0838500857353210e-01</left_val>
            <right_val>-1.7435710132122040e-01</right_val></_></_>
        <_>
          <!-- tree 6 -->
          <_>
            <!-- root node -->
            <feature>
              <rects>
                <_>
                  2 28 12 7 -1.</_>
                <_>
                  6 28 4 7 3.</_></rects>
              <tilted>0</tilted></feature>
            <threshold>3.0632910784333944e-03</threshold>
            <left_val>-3.7123060226440430e-01</left_val>
            <right_val>4.8486709594726562e-01</right_val></_></_>
        <_>
          <!-- tree 7 -->
          <_>
            <!-- root node -->
            <feature>
              <rects>
                <_>
                  39 14 6 29 -1.</_>
                <_>
                  41 14 2 29 3.</_></rects>
              <tilted>0</tilted></feature>
            <threshold>-3.5965540446341038e-03</threshold>
            <left_val>4.2280080914497375e-01</left_val>
            <right_val>-1.7524239420890808e-01</right_val></_></_>
        <_>
          <!-- tree 8 -->
          <_>
            <!-- root node -->
            <feature>
              <rects>
                <_>
                  0 32 2 15 -1.</_>
                <_>
                  1 32 1 15 2.</_></rects>
              <tilted>0</tilted></feature>
            <threshold>-2.3927450456540100e-06</threshold>
            <left_val>3.3810791373252869e-01</left_val>
            <right_val>-6.0484701395034790e-01</right_val></_></_>
        <_>
          <!-- tree 9 -->
          <_>
            <!-- root node -->
            <feature>
              <rects>
                <_>
                  37 17 9 19 -1.</_>
                <_>
                  40 17 3 19 3.</_></rects>
              <tilted>0</tilted></feature>
            <threshold>7.4110981076955795e-03</threshold>
            <left_val>-2.3276999592781067e-01</left_val>
            <right_val>5.0426137447357178e-01</right_val></_></_>
        <_>
          <!-- tree 10 -->
          <_>
            <!-- root node -->
            <feature>
              <rects>
                <_>
                  5 15 6 23 -1.</_>
                <_>
                  7 15 2 23 3.</_></rects>
              <tilted>0</tilted></feature>
            <threshold>-4.9293711781501770e-03</threshold>
            <left_val>7.4284601211547852e-01</left_val>
            <right_val>-2.3307080566883087e-01</right_val></_></_>
        <_>
          <!-- tree 11 -->
          <_>
            <!-- root node -->
            <feature>
              <rects>
                <_>
                  21 0 8 1 -1.</_>
                <_>
                  21 0 4 1 2.</_></rects>
              <tilted>0</tilted></feature>
            <threshold>-2.1339769591577351e-04</threshold>
            <left_val>-9.4894289970397949e-01</left_val>
            <right_val>2.1550080180168152e-01</right_val></_></_>
        <_>
          <!-- tree 12 -->
          <_>
            <!-- root node -->
            <feature>
              <rects>
                <_>
                  3 18 12 11 -1.</_>
                <_>
                  7 18 4 11 3.</_></rects>
              <tilted>0</tilted></feature>
            <threshold>8.8796615600585938e-03</threshold>
            <left_val>-3.6025631427764893e-01</left_val>
            <right_val>5.3600347042083740e-01</right_val></_></_></trees>
      <stage_threshold>-1.2457950115203857e+00</stage_threshold>
      <parent>12</parent>
      <next>-1</next></_>
    <_>
      <!-- stage 14 -->
      <trees>
        <_>
          <!-- tree 0 -->
          <_>
            <!-- root node -->
            <feature>
              <rects>
                <_>
                  5 9 18 14 -1.</_>
                <_>
                  5 9 9 7 2.</_>
                <_>
                  14 16 9 7 2.</_></rects>
              <tilted>0</tilted></feature>
            <threshold>1.4621599577367306e-02</threshold>
            <left_val>-3.3099880814552307e-01</left_val>
            <right_val>6.5901958942413330e-01</right_val></_></_>
        <_>
          <!-- tree 1 -->
          <_>
            <!-- root node -->
            <feature>
              <rects>
                <_>
                  43 28 5 4 -1.</_>
                <_>
                  43 30 5 2 2.</_></rects>
              <tilted>0</tilted></feature>
            <threshold>-1.5189140685833991e-04</threshold>
            <left_val>3.2791680097579956e-01</left_val>
            <right_val>-2.9278790950775146e-01</right_val></_></_>
        <_>
          <!-- tree 2 -->
          <_>
            <!-- root node -->
            <feature>
              <rects>
                <_>
                  11 4 15 12 -1.</_>
                <_>
                  16 4 5 12 3.</_></rects>
              <tilted>0</tilted></feature>
            <threshold>1.7374420538544655e-02</threshold>
            <left_val>-2.8131711483001709e-01</left_val>
            <right_val>5.8174467086791992e-01</right_val></_></_>
        <_>
          <!-- tree 3 -->
          <_>
            <!-- root node -->
            <feature>
              <rects>
                <_>
                  27 13 14 14 -1.</_>
                <_>
                  34 13 7 7 2.</_>
                <_>
                  27 20 7 7 2.</_></rects>
              <tilted>0</tilted></feature>
            <threshold>1.7274240031838417e-02</threshold>
            <left_val>-1.7870080471038818e-01</left_val>
            <right_val>5.4716098308563232e-01</right_val></_></_>
        <_>
          <!-- tree 4 -->
          <_>
            <!-- root node -->
            <feature>
              <rects>
                <_>
                  0 5 8 2 -1.</_>
                <_>
                  4 5 4 2 2.</_></rects>
              <tilted>0</tilted></feature>
            <threshold>-2.0608749764505774e-04</threshold>
            <left_val>-8.7224191427230835e-01</left_val>
            <right_val>2.0700420439243317e-01</right_val></_></_>
        <_>
          <!-- tree 5 -->
          <_>
            <!-- root node -->
            <feature>
              <rects>
                <_>
                  39 33 2 3 -1.</_>
                <_>
                  39 33 1 3 2.</_></rects>
              <tilted>0</tilted></feature>
            <threshold>7.8202247095759958e-06</threshold>
            <left_val>-2.7561819553375244e-01</left_val>
            <right_val>1.1797980219125748e-01</right_val></_></_>
        <_>
          <!-- tree 6 -->
          <_>
            <!-- root node -->
            <feature>
              <rects>
                <_>
                  17 18 16 24 -1.</_>
                <_>
                  17 18 8 12 2.</_>
                <_>
                  25 30 8 12 2.</_></rects>
              <tilted>0</tilted></feature>
            <threshold>-2.8039399534463882e-02</threshold>
            <left_val>7.3146462440490723e-01</left_val>
            <right_val>-2.4502210319042206e-01</right_val></_></_>
        <_>
          <!-- tree 7 -->
          <_>
            <!-- root node -->
            <feature>
              <rects>
                <_>
                  26 4 12 2 -1.</_>
                <_>
                  32 4 6 1 2.</_>
                <_>
                  26 5 6 1 2.</_></rects>
              <tilted>0</tilted></feature>
            <threshold>-3.3598919981159270e-04</threshold>
            <left_val>5.7155728340148926e-01</left_val>
            <right_val>-1.9161459803581238e-01</right_val></_></_>
        <_>
          <!-- tree 8 -->
          <_>
            <!-- root node -->
            <feature>
              <rects>
                <_>
                  2 42 1 8 -1.</_>
                <_>
                  2 46 1 4 2.</_></rects>
              <tilted>0</tilted></feature>
            <threshold>-2.5171411107294261e-04</threshold>
            <left_val>-9.2917561531066895e-01</left_val>
            <right_val>1.6975739598274231e-01</right_val></_></_>
        <_>
          <!-- tree 9 -->
          <_>
            <!-- root node -->
            <feature>
              <rects>
                <_>
                  40 24 9 1 -1.</_>
                <_>
                  43 24 3 1 3.</_></rects>
              <tilted>0</tilted></feature>
            <threshold>-7.8206579200923443e-04</threshold>
            <left_val>5.0283122062683105e-01</left_val>
            <right_val>-1.5296210348606110e-01</right_val></_></_>
        <_>
          <!-- tree 10 -->
          <_>
            <!-- root node -->
            <feature>
              <rects>
                <_>
                  1 24 9 1 -1.</_>
                <_>
                  4 24 3 1 3.</_></rects>
              <tilted>0</tilted></feature>
            <threshold>2.9096839716657996e-04</threshold>
            <left_val>-2.9626381397247314e-01</left_val>
            <right_val>5.3949958086013794e-01</right_val></_></_></trees>
      <stage_threshold>-1.2318899631500244e+00</stage_threshold>
      <parent>13</parent>
      <next>-1</next></_>
    <_>
      <!-- stage 15 -->
      <trees>
        <_>
          <!-- tree 0 -->
          <_>
            <!-- root node -->
            <feature>
              <rects>
                <_>
                  15 10 20 18 -1.</_>
                <_>
                  15 16 20 6 3.</_></rects>
              <tilted>0</tilted></feature>
            <threshold>4.2365670204162598e-02</threshold>
            <left_val>-3.2787120342254639e-01</left_val>
            <right_val>6.1068111658096313e-01</right_val></_></_>
        <_>
          <!-- tree 1 -->
          <_>
            <!-- root node -->
            <feature>
              <rects>
                <_>
                  0 22 50 28 -1.</_>
                <_>
                  0 36 50 14 2.</_></rects>
              <tilted>0</tilted></feature>
            <threshold>-9.7193673253059387e-02</threshold>
            <left_val>2.4017180502414703e-01</left_val>
            <right_val>-7.3859941959381104e-01</right_val></_></_>
        <_>
          <!-- tree 2 -->
          <_>
            <!-- root node -->
            <feature>
              <rects>
                <_>
                  9 5 12 2 -1.</_>
                <_>
                  9 5 6 1 2.</_>
                <_>
                  15 6 6 1 2.</_></rects>
              <tilted>0</tilted></feature>
            <threshold>-5.7576037943363190e-04</threshold>
            <left_val>6.8363332748413086e-01</left_val>
            <right_val>-2.7952811121940613e-01</right_val></_></_>
        <_>
          <!-- tree 3 -->
          <_>
            <!-- root node -->
            <feature>
              <rects>
                <_>
                  18 8 18 15 -1.</_>
                <_>
                  18 13 18 5 3.</_></rects>
              <tilted>0</tilted></feature>
            <threshold>-3.7293959408998489e-02</threshold>
            <left_val>7.9729288816452026e-01</left_val>
            <right_val>-1.7147819697856903e-01</right_val></_></_>
        <_>
          <!-- tree 4 -->
          <_>
            <!-- root node -->
            <feature>
              <rects>
                <_>
                  10 0 9 1 -1.</_>
                <_>
                  13 0 3 1 3.</_></rects>
              <tilted>0</tilted></feature>
            <threshold>-1.1919660028070211e-04</threshold>
            <left_val>-8.0480527877807617e-01</left_val>
            <right_val>2.4832859635353088e-01</right_val></_></_>
        <_>
          <!-- tree 5 -->
          <_>
            <!-- root node -->
            <feature>
              <rects>
                <_>
                  31 38 2 10 -1.</_>
                <_>
                  31 43 2 5 2.</_></rects>
              <tilted>0</tilted></feature>
            <threshold>-1.6941489884629846e-03</threshold>
            <left_val>2.1435689926147461e-01</left_val>
            <right_val>-2.4716639518737793e-01</right_val></_></_>
        <_>
          <!-- tree 6 -->
          <_>
            <!-- root node -->
            <feature>
              <rects>
                <_>
                  23 24 1 4 -1.</_>
                <_>
                  23 26 1 2 2.</_></rects>
              <tilted>0</tilted></feature>
            <threshold>-1.8035290122497827e-04</threshold>
            <left_val>-7.4246287345886230e-01</left_val>
            <right_val>1.9973599910736084e-01</right_val></_></_>
        <_>
          <!-- tree 7 -->
          <_>
            <!-- root node -->
            <feature>
              <rects>
                <_>
                  8 49 36 1 -1.</_>
                <_>
                  8 49 18 1 2.</_></rects>
              <tilted>0</tilted></feature>
            <threshold>5.5933380499482155e-03</threshold>
            <left_val>1.4792819321155548e-01</left_val>
            <right_val>-9.2931497097015381e-01</right_val></_></_>
        <_>
          <!-- tree 8 -->
          <_>
            <!-- root node -->
            <feature>
              <rects>
                <_>
                  17 38 2 10 -1.</_>
                <_>
                  17 43 2 5 2.</_></rects>
              <tilted>0</tilted></feature>
            <threshold>-2.1529139485210180e-03</threshold>
            <left_val>4.4167789816856384e-01</left_val>
            <right_val>-3.8511741161346436e-01</right_val></_></_>
        <_>
          <!-- tree 9 -->
          <_>
            <!-- root node -->
            <feature>
              <rects>
                <_>
                  14 0 27 1 -1.</_>
                <_>
                  23 0 9 1 3.</_></rects>
              <tilted>0</tilted></feature>
            <threshold>5.5313762277364731e-04</threshold>
            <left_val>1.2520509958267212e-01</left_val>
            <right_val>-6.6934430599212646e-01</right_val></_></_>
        <_>
          <!-- tree 10 -->
          <_>
            <!-- root node -->
            <feature>
              <rects>
                <_>
                  8 0 30 1 -1.</_>
                <_>
                  18 0 10 1 3.</_></rects>
              <tilted>0</tilted></feature>
            <threshold>-2.7386419242247939e-04</threshold>
            <left_val>-7.4811077117919922e-01</left_val>
            <right_val>2.2393240034580231e-01</right_val></_></_>
        <_>
          <!-- tree 11 -->
          <_>
            <!-- root node -->
            <feature>
              <rects>
                <_>
                  26 6 15 22 -1.</_>
                <_>
                  31 6 5 22 3.</_></rects>
              <tilted>0</tilted></feature>
            <threshold>3.0841920524835587e-02</threshold>
            <left_val>-2.4315769970417023e-01</left_val>
            <right_val>5.1429820060729980e-01</right_val></_></_>
        <_>
          <!-- tree 12 -->
          <_>
            <!-- root node -->
            <feature>
              <rects>
                <_>
                  13 12 21 19 -1.</_>
                <_>
                  20 12 7 19 3.</_></rects>
              <tilted>0</tilted></feature>
            <threshold>4.1422851383686066e-02</threshold>
            <left_val>-2.7134740352630615e-01</left_val>
            <right_val>6.5394777059555054e-01</right_val></_></_></trees>
      <stage_threshold>-1.0094699859619141e+00</stage_threshold>
      <parent>14</parent>
      <next>-1</next></_>
    <_>
      <!-- stage 16 -->
      <trees>
        <_>
          <!-- tree 0 -->
          <_>
            <!-- root node -->
            <feature>
              <rects>
                <_>
                  20 1 7 6 -1.</_>
                <_>
                  20 3 7 2 3.</_></rects>
              <tilted>0</tilted></feature>
            <threshold>4.5277248136699200e-03</threshold>
            <left_val>-3.0338349938392639e-01</left_val>
            <right_val>7.7882522344589233e-01</right_val></_></_>
        <_>
          <!-- tree 1 -->
          <_>
            <!-- root node -->
            <feature>
              <rects>
                <_>
                  13 49 36 1 -1.</_>
                <_>
                  25 49 12 1 3.</_></rects>
              <tilted>0</tilted></feature>
            <threshold>4.6929018571972847e-04</threshold>
            <left_val>2.4193589389324188e-01</left_val>
            <right_val>-6.3672077655792236e-01</right_val></_></_>
        <_>
          <!-- tree 2 -->
          <_>
            <!-- root node -->
            <feature>
              <rects>
                <_>
                  13 4 2 8 -1.</_>
                <_>
                  14 4 1 8 2.</_></rects>
              <tilted>0</tilted></feature>
            <threshold>1.8327850557398051e-04</threshold>
            <left_val>-4.5724219083786011e-01</left_val>
            <right_val>4.6786031126976013e-01</right_val></_></_>
        <_>
          <!-- tree 3 -->
          <_>
            <!-- root node -->
            <feature>
              <rects>
                <_>
                  36 11 9 6 -1.</_>
                <_>
                  39 11 3 6 3.</_></rects>
              <tilted>0</tilted></feature>
            <threshold>9.6396007575094700e-04</threshold>
            <left_val>-2.7022320032119751e-01</left_val>
            <right_val>2.8427121043205261e-01</right_val></_></_>
        <_>
          <!-- tree 4 -->
          <_>
            <!-- root node -->
            <feature>
              <rects>
                <_>
                  5 11 9 6 -1.</_>
                <_>
                  8 11 3 6 3.</_></rects>
              <tilted>0</tilted></feature>
            <threshold>2.1501539740711451e-03</threshold>
            <left_val>-3.4246599674224854e-01</left_val>
            <right_val>6.4816272258758545e-01</right_val></_></_>
        <_>
          <!-- tree 5 -->
          <_>
            <!-- root node -->
            <feature>
              <rects>
                <_>
                  49 14 1 8 -1.</_>
                <_>
                  49 18 1 4 2.</_></rects>
              <tilted>0</tilted></feature>
            <threshold>1.4907939475961030e-04</threshold>
            <left_val>2.1271389722824097e-01</left_val>
            <right_val>-7.7091217041015625e-01</right_val></_></_>
        <_>
          <!-- tree 6 -->
          <_>
            <!-- root node -->
            <feature>
              <rects>
                <_>
                  12 47 25 2 -1.</_>
                <_>
                  12 48 25 1 2.</_></rects>
              <tilted>0</tilted></feature>
            <threshold>4.5135291293263435e-04</threshold>
            <left_val>-4.4884818792343140e-01</left_val>
            <right_val>4.9121201038360596e-01</right_val></_></_>
        <_>
          <!-- tree 7 -->
          <_>
            <!-- root node -->
            <feature>
              <rects>
                <_>
                  31 22 2 3 -1.</_>
                <_>
                  31 22 1 3 2.</_></rects>
              <tilted>0</tilted></feature>
            <threshold>-4.4356049329508096e-05</threshold>
            <left_val>-4.0252289175987244e-01</left_val>
            <right_val>2.2514970600605011e-01</right_val></_></_>
        <_>
          <!-- tree 8 -->
          <_>
            <!-- root node -->
            <feature>
              <rects>
                <_>
                  4 16 9 23 -1.</_>
                <_>
                  7 16 3 23 3.</_></rects>
              <tilted>0</tilted></feature>
            <threshold>-1.3438070192933083e-02</threshold>
            <left_val>7.9190260171890259e-01</left_val>
            <right_val>-2.8721138834953308e-01</right_val></_></_></trees>
      <stage_threshold>-1.1171870231628418e+00</stage_threshold>
      <parent>15</parent>
      <next>-1</next></_>
    <_>
      <!-- stage 17 -->
      <trees>
        <_>
          <!-- tree 0 -->
          <_>
            <!-- root node -->
            <feature>
              <rects>
                <_>
                  2 36 9 2 -1.</_>
                <_>
                  2 37 9 1 2.</_></rects>
              <tilted>0</tilted></feature>
            <threshold>-1.3537470658775419e-04</threshold>
            <left_val>5.5881941318511963e-01</left_val>
            <right_val>-5.5585527420043945e-01</right_val></_></_>
        <_>
          <!-- tree 1 -->
          <_>
            <!-- root node -->
            <feature>
              <rects>
                <_>
                  0 14 50 36 -1.</_>
                <_>
                  0 32 50 18 2.</_></rects>
              <tilted>0</tilted></feature>
            <threshold>-1.7839780449867249e-01</threshold>
            <left_val>3.7274810671806335e-01</left_val>
            <right_val>-7.6775747537612915e-01</right_val></_></_>
        <_>
          <!-- tree 2 -->
          <_>
            <!-- root node -->
            <feature>
              <rects>
                <_>
                  9 33 2 10 -1.</_>
                <_>
                  10 33 1 10 2.</_></rects>
              <tilted>0</tilted></feature>
            <threshold>2.4494540411978960e-05</threshold>
            <left_val>-4.4666069746017456e-01</left_val>
            <right_val>5.5964469909667969e-01</right_val></_></_>
        <_>
          <!-- tree 3 -->
          <_>
            <!-- root node -->
            <feature>
              <rects>
                <_>
                  49 12 1 18 -1.</_>
                <_>
                  49 18 1 6 3.</_></rects>
              <tilted>0</tilted></feature>
            <threshold>-7.1483361534774303e-04</threshold>
            <left_val>-5.4441052675247192e-01</left_val>
            <right_val>1.1052480340003967e-01</right_val></_></_>
        <_>
          <!-- tree 4 -->
          <_>
            <!-- root node -->
            <feature>
              <rects>
                <_>
                  24 25 2 2 -1.</_>
                <_>
                  24 26 2 1 2.</_></rects>
              <tilted>0</tilted></feature>
            <threshold>3.5841920180246234e-05</threshold>
            <left_val>3.3113878965377808e-01</left_val>
            <right_val>-7.6743012666702271e-01</right_val></_></_>
        <_>
          <!-- tree 5 -->
          <_>
            <!-- root node -->
            <feature>
              <rects>
                <_>
                  49 12 1 18 -1.</_>
                <_>
                  49 18 1 6 3.</_></rects>
              <tilted>0</tilted></feature>
            <threshold>1.2634280137717724e-03</threshold>
            <left_val>4.9742568284273148e-02</left_val>
            <right_val>-6.5335148572921753e-01</right_val></_></_>
        <_>
          <!-- tree 6 -->
          <_>
            <!-- root node -->
            <feature>
              <rects>
                <_>
                  0 12 1 18 -1.</_>
                <_>
                  0 18 1 6 3.</_></rects>
              <tilted>0</tilted></feature>
            <threshold>7.2143337456509471e-04</threshold>
            <left_val>2.6167631149291992e-01</left_val>
            <right_val>-8.7931412458419800e-01</right_val></_></_></trees>
      <stage_threshold>-1.0176759958267212e+00</stage_threshold>
      <parent>16</parent>
      <next>-1</next></_>
    <_>
      <!-- stage 18 -->
      <trees>
        <_>
          <!-- tree 0 -->
          <_>
            <!-- root node -->
            <feature>
              <rects>
                <_>
                  20 21 1 8 -1.</_>
                <_>
                  20 25 1 4 2.</_></rects>
              <tilted>0</tilted></feature>
            <threshold>1.6214589413721114e-04</threshold>
            <left_val>4.3930810689926147e-01</left_val>
            <right_val>-7.1881687641143799e-01</right_val></_></_>
        <_>
          <!-- tree 1 -->
          <_>
            <!-- root node -->
            <feature>
              <rects>
                <_>
                  44 37 6 7 -1.</_>
                <_>
                  44 37 3 7 2.</_></rects>
              <tilted>0</tilted></feature>
            <threshold>-1.3188689990784042e-05</threshold>
            <left_val>7.5311936438083649e-02</left_val>
            <right_val>-4.8040708899497986e-01</right_val></_></_>
        <_>
          <!-- tree 2 -->
          <_>
            <!-- root node -->
            <feature>
              <rects>
                <_>
                  9 33 2 10 -1.</_>
                <_>
                  10 33 1 10 2.</_></rects>
              <tilted>0</tilted></feature>
            <threshold>2.4494540411978960e-05</threshold>
            <left_val>-4.5410838723182678e-01</left_val>
            <right_val>8.3592402935028076e-01</right_val></_></_>
        <_>
          <!-- tree 3 -->
          <_>
            <!-- root node -->
            <feature>
              <rects>
                <_>
                  35 17 3 2 -1.</_>
                <_>
                  35 18 3 1 2.</_></rects>
              <tilted>0</tilted></feature>
            <threshold>1.2196679745102301e-04</threshold>
            <left_val>6.6516101360321045e-02</left_val>
            <right_val>-5.1994270086288452e-01</right_val></_></_>
        <_>
          <!-- tree 4 -->
          <_>
            <!-- root node -->
            <feature>
              <rects>
                <_>
                  0 0 1 24 -1.</_>
                <_>
                  0 12 1 12 2.</_></rects>
              <tilted>0</tilted></feature>
            <threshold>-1.1184240065631457e-05</threshold>
            <left_val>5.8335059881210327e-01</left_val>
            <right_val>-5.0585079193115234e-01</right_val></_></_>
        <_>
          <!-- tree 5 -->
          <_>
            <!-- root node -->
            <feature>
              <rects>
                <_>
                  30 28 2 2 -1.</_>
                <_>
                  30 28 1 2 2.</_></rects>
              <tilted>0</tilted></feature>
            <threshold>1.3446700177155435e-04</threshold>
            <left_val>2.6653319597244263e-01</left_val>
            <right_val>-6.0980570316314697e-01</right_val></_></_>
        <_>
          <!-- tree 6 -->
          <_>
            <!-- root node -->
            <feature>
              <rects>
                <_>
                  17 32 9 5 -1.</_>
                <_>
                  20 32 3 5 3.</_></rects>
              <tilted>0</tilted></feature>
            <threshold>3.0715839329786832e-06</threshold>
            <left_val>-6.6088271141052246e-01</left_val>
            <right_val>4.5996621251106262e-01</right_val></_></_>
        <_>
          <!-- tree 7 -->
          <_>
            <!-- root node -->
            <feature>
              <rects>
                <_>
                  35 17 3 2 -1.</_>
                <_>
                  35 18 3 1 2.</_></rects>
              <tilted>0</tilted></feature>
            <threshold>-3.8709619548171759e-04</threshold>
            <left_val>1.</left_val>
            <right_val>-6.4007438719272614e-02</right_val></_></_>
        <_>
          <!-- tree 8 -->
          <_>
            <!-- root node -->
            <feature>
              <rects>
                <_>
                  12 17 3 2 -1.</_>
                <_>
                  12 18 3 1 2.</_></rects>
              <tilted>0</tilted></feature>
            <threshold>3.5650278732646257e-05</threshold>
            <left_val>5.8050608634948730e-01</left_val>
            <right_val>-6.9739258289337158e-01</right_val></_></_></trees>
      <stage_threshold>-1.1702890396118164e+00</stage_threshold>
      <parent>17</parent>
      <next>-1</next></_>
    <_>
      <!-- stage 19 -->
      <trees>
        <_>
          <!-- tree 0 -->
          <_>
            <!-- root node -->
            <feature>
              <rects>
                <_>
                  10 15 12 2 -1.</_>
                <_>
                  10 15 6 1 2.</_>
                <_>
                  16 16 6 1 2.</_></rects>
              <tilted>0</tilted></feature>
            <threshold>-1.6432530537713319e-04</threshold>
            <left_val>-7.0078629255294800e-01</left_val>
            <right_val>7.2356712818145752e-01</right_val></_></_>
        <_>
          <!-- tree 1 -->
          <_>
            <!-- root node -->
            <feature>
              <rects>
                <_>
                  29 26 3 7 -1.</_>
                <_>
                  30 26 1 7 3.</_></rects>
              <tilted>0</tilted></feature>
            <threshold>7.4402247264515609e-05</threshold>
            <left_val>2.2160710394382477e-01</left_val>
            <right_val>-4.1642248630523682e-01</right_val></_></_>
        <_>
          <!-- tree 2 -->
          <_>
            <!-- root node -->
            <feature>
              <rects>
                <_>
                  20 19 2 4 -1.</_>
                <_>
                  20 21 2 2 2.</_></rects>
              <tilted>0</tilted></feature>
            <threshold>1.2097870057914406e-04</threshold>
            <left_val>7.2514057159423828e-01</left_val>
            <right_val>-7.1450060606002808e-01</right_val></_></_>
        <_>
          <!-- tree 3 -->
          <_>
            <!-- root node -->
            <feature>
              <rects>
                <_>
                  28 17 4 2 -1.</_>
                <_>
                  28 18 4 1 2.</_></rects>
              <tilted>0</tilted></feature>
            <threshold>-2.8451970592868747e-06</threshold>
            <left_val>2.6162481307983398e-01</left_val>
            <right_val>-1.5318760275840759e-01</right_val></_></_>
        <_>
          <!-- tree 4 -->
          <_>
            <!-- root node -->
            <feature>
              <rects>
                <_>
                  22 21 5 12 -1.</_>
                <_>
                  22 25 5 4 3.</_></rects>
              <tilted>0</tilted></feature>
            <threshold>-1.1152450460940599e-03</threshold>
            <left_val>-7.9093998670578003e-01</left_val>
            <right_val>7.2442972660064697e-01</right_val></_></_></trees>
      <stage_threshold>-9.2138332128524780e-01</stage_threshold>
      <parent>18</parent>
      <next>-1</next></_></stages></BallLARC>
</opencv_storage>
